digraph Tree {
node [shape=box, style="filled, rounded", color="black", fontname="helvetica"] ;
edge [fontname="helvetica"] ;
0 [label="servicios <= 1.5\ngini = 0.41\nsamples = 24\nvalue = [10, 25]\nclass = Peligroso", fillcolor="#88c4ef"] ;
1 [label="servicios_inseguros <= 0.5\ngini = 0.48\nsamples = 4\nvalue = [3, 2]\nclass = No peligroso", fillcolor="#f6d5bd"] ;
0 -> 1 [labeldistance=2.5, labelangle=45, headlabel="True"] ;
2 [label="gini = 0.0\nsamples = 2\nvalue = [3, 0]\nclass = No peligroso", fillcolor="#e58139"] ;
1 -> 2 ;
3 [label="gini = 0.0\nsamples = 2\nvalue = [0, 2]\nclass = Peligroso", fillcolor="#399de5"] ;
1 -> 3 ;
4 [label="servicios <= 22.5\ngini = 0.36\nsamples = 20\nvalue = [7, 23]\nclass = Peligroso", fillcolor="#75bbed"] ;
0 -> 4 [labeldistance=2.5, labelangle=-45, headlabel="False"] ;
5 [label="gini = 0.27\nsamples = 18\nvalue = [4, 21]\nclass = Peligroso", fillcolor="#5fb0ea"] ;
4 -> 5 ;
6 [label="gini = 0.48\nsamples = 2\nvalue = [3, 2]\nclass = No peligroso", fillcolor="#f6d5bd"] ;
4 -> 6 ;
}